{
  "weights": {
    "doubling": -0.08805002980204922,
    "probability": 0.19963204264973183,
    "analyse": -0.49351513791021345,
    "count": -0.08805002980204922,
    "7": 0.5180857737682665,
    "6": 1.2112329543282117,
    "3": 1.5606085957853326,
    "put": 0.605097150757896,
    "tasks": 0.19963204264973183,
    "decimal": 1.0105622588660608,
    "intervals": -0.49351513791021345,
    "promote": 0.605097150757896,
    "unitary": -0.08805002980204922,
    "even": -0.49351513791021345,
    "50": 0.19963204264973183,
    "define": -0.49351513791021345,
    "sketch": -0.49351513791021345,
    "graad": 2.2473248860149875,
    "common": 0.4227755939639416,
    "result": -0.49351513791021345,
    "trig": -0.49351513791021345,
    "classifying": -0.49351513791021345,
    "down": 0.19963204264973183,
    "pictures": -0.49351513791021345,
    "geometric": 0.7592478305851547,
    "thread": -0.49351513791021345,
    "pattern": -0.08805002980204922,
    "plotting": -0.49351513791021345,
    "days": -0.49351513791021345,
    "maths": 0.7104576664157225,
    "at": 1.2112329543282117,
    "measure": -0.49351513791021345,
    "time": -0.49351513791021345,
    "symbols": -0.49351513791021345,
    "largest": -0.49351513791021345,
    "grade": 0.425549520846667,
    "different": -0.49351513791021345,
    "perform": -0.08805002980204922,
    "use": 1.2982443313178413,
    "equations": 0.7592478305851547,
    "extend": -0.08805002980204922,
    "least": 1.2982443313178413,
    "by": 1.904380134888157,
    "simplifying": -0.49351513791021345,
    "repeatedly": -0.08805002980204922,
    "cogni": -0.49351513791021345,
    "language": -2.9784217876982138,
    "squares": -0.49351513791021345,
    "plot": -0.49351513791021345,
    "learning": -0.49351513791021345,
    "say": -0.49351513791021345,
    "poetry": -3.671568968258159,
    "topics": 2.3396982061460028,
    "capacity": -0.49351513791021345,
    "lesson": -3.5845575912685295,
    "questions": 0.7592478305851547,
    "essay": -3.5845575912685295,
    "breaking": 0.19963204264973183,
    "vir": 2.2473248860149875,
    "factorisation": -0.49351513791021345,
    "1000": -0.49351513791021345,
    "odd": -0.49351513791021345,
    "leading": 0.605097150757896,
    "does": 2.3098452429963214,
    "i": -0.42452226642326185,
    "twodigit": -0.49351513791021345,
    "patterns": 1.8090699550838323,
    "strategically": -0.49351513791021345,
    "list": -3.7516116759316955,
    "900": -0.49351513791021345,
    "smallest": -0.08805002980204922,
    "input": -0.08805002980204922,
    "rounding": 0.19963204264973183,
    "14": -0.49351513791021345,
    "basic": -0.08805002980204922,
    "method": -0.49351513791021345,
    "5s": -0.49351513791021345,
    "rules": 0.19963204264973183,
    "place": 0.4227755939639416,
    "functions": 1.1159227745238869,
    "examination": -0.08805002980204922,
    "ask": 0.605097150757896,
    "orientation": -3.894712519572369,
    "grouping": -0.49351513791021345,
    "atp": 3.032845386705948,
    "requirements": 2.3686857430192547,
    "final": -0.49351513791021345,
    "understanding": -0.49351513791021345,
    "plan": -3.5845575912685295,
    "84": -0.49351513791021345,
    "rates": -3.894712519572369,
    "analytical": 0.605097150757896,
    "value": 0.4227755939639416,
    "600": -0.49351513791021345,
    "equation": -0.49351513791021345,
    "task": -0.08805002980204922,
    "operations": 1.1159227745238869,
    "principle": -0.49351513791021345,
    "of": 0.24219165706852766,
    "th": -0.08805002980204922,
    "town": -3.894712519572369,
    "constant": -0.49351513791021345,
    "vectors": -3.4892474114642043,
    "volume": -0.08805002980204922,
    "marks": -0.49351513791021345,
    "3d": -0.08805002980204922,
    "subtracting": -0.49351513791021345,
    "large": -0.49351513791021345,
    "halving": -0.08805002980204922,
    "sentences": 0.4227755939639416,
    "measurement": 0.19963204264973183,
    "igcse": -3.671568968258159,
    "solve": 0.605097150757896,
    "point": 0.19963204264973183,
    "difference": -0.08805002980204922,
    "rubric": -3.894712519572369,
    "cos": -0.08805002980204922,
    "know": -0.49351513791021345,
    "learners": 0.4227755939639416,
    "unknowns": -0.08805002980204922,
    "frequency": -0.49351513791021345,
    "two": 1.0105622588660608,
    "1s": 0.8927792232096772,
    "script": -3.7516116759316955,
    "16": -0.08805002980204922,
    "ungrouped": -0.49351513791021345,
    "give": -3.7516116759316955,
    "properties": 0.7592478305851547,
    "that": 0.19963204264973183,
    "counting": 0.19963204264973183,
    "in": 1.4897825432167202,
    "tan": -0.08805002980204922,
    "reveal": 0.4227755939639416,
    "2": 0.23644601577244823,
    "do": -0.4584238180989433,
    "four": -0.49351513791021345,
    "t": -0.08805002980204922,
    "bead": -0.49351513791021345,
    "prime": -0.49351513791021345,
    "squared": -0.08805002980204922,
    "weather": -3.894712519572369,
    "thinking": 0.605097150757896,
    "categories": -0.49351513791021345,
    "less": -0.49351513791021345,
    "an": -0.49351513791021345,
    "calculus": -0.08805002980204922,
    "sciences": -3.5845575912685295,
    "line": 1.378287038991378,
    "expressions": -0.49351513791021345,
    "between": 1.4523950111450998,
    "polynomial": -0.49351513791021345,
    "organize": -0.08805002980204922,
    "react": -3.671568968258159,
    "component": -3.671568968258159,
    "finance": -0.49351513791021345,
    "organising": -0.49351513791021345,
    "halves": -0.08805002980204922,
    "strategy": -0.49351513791021345,
    "9": 0.17146116568303577,
    "literacy": -3.894712519572369,
    "it": -0.49351513791021345,
    "python": -3.7516116759316955,
    "investigate": 0.605097150757896,
    "nb": -0.49351513791021345,
    "problems": -0.08805002980204922,
    "sharing": 0.4227755939639416,
    "five": -0.49351513791021345,
    "pg": 0.4227755939639416,
    "factors": -0.49351513791021345,
    "on": 1.2112329543282117,
    "causes": -3.7516116759316955,
    "big": 0.4227755939639416,
    "including": 0.4227755939639416,
    "170": -0.49351513791021345,
    "tables": -0.49351513791021345,
    "hl": -3.4892474114642043,
    "numerical": -0.49351513791021345,
    "teach": 2.1806335115163153,
    "and": 3.195364316203723,
    "world": -3.7516116759316955,
    "inequalities": -0.08805002980204922,
    "constructed": -0.49351513791021345,
    "always": -0.49351513791021345,
    "24": 0.4227755939639416,
    "work": -2.652999387263586,
    "72": -0.49351513791021345,
    "number": 3.232178289326439,
    "accuracy": -0.49351513791021345,
    "general": -0.49351513791021345,
    "or": 0.8927792232096772,
    "formal": 0.605097150757896,
    "pp": 0.8927792232096772,
    "definition": -0.49351513791021345,
    "values": -0.49351513791021345,
    "pictographs": -0.49351513791021345,
    "mathematical": -3.894712519572369,
    "750": -0.49351513791021345,
    "fair": 0.4227755939639416,
    "12": -0.3111935811162589,
    "set": 0.605097150757896,
    "building": 0.19963204264973183,
    "be": 0.8927792232096772,
    "class": 0.19963204264973183,
    "beads": -0.49351513791021345,
    "appropriate": -0.49351513791021345,
    "map": -3.7516116759316955,
    "500": -0.08805002980204922,
    "15": 0.8927792232096772,
    "multiply": 0.605097150757896,
    "link": -0.49351513791021345,
    "127": -0.49351513791021345,
    "300": -0.49351513791021345,
    "multiplication": -0.49351513791021345,
    "summary": -0.49351513791021345,
    "29": -0.49351513791021345,
    "graphically": -0.49351513791021345,
    "sources": -0.08805002980204922,
    "faces": -0.49351513791021345,
    "right": -0.08805002980204922,
    "home": -3.671568968258159,
    "rapid": -0.49351513791021345,
    "quadratic": -0.08805002980204922,
    "space": -0.49351513791021345,
    "trial": -0.49351513791021345,
    "figures": 0.19963204264973183,
    "growth": -0.49351513791021345,
    "differential": -0.08805002980204922,
    "mid": -0.49351513791021345,
    "teaching": 1.0105622588660608,
    "english": -3.671568968258159,
    "copy": -0.49351513791021345,
    "given": 0.4227755939639416,
    "17": -0.08805002980204922,
    "more": 0.19963204264973183,
    "colours": -0.49351513791021345,
    "recognise": 0.4227755939639416,
    "recommended": -0.49351513791021345,
    "completed": -0.49351513791021345,
    "drawings": -0.49351513791021345,
    "help": -0.6926438130205491,
    "represent": -0.49351513791021345,
    "cambridge": -3.671568968258159,
    "graphs": 0.19963204264973183,
    "what": 0.3440833253882767,
    "oral": -0.49351513791021345,
    "using": 0.7592478305851547,
    "war": -3.7516116759316955,
    "learner": 0.4227755939639416,
    "natural": -3.5845575912685295,
    "wiskunde": 2.2473248860149875,
    "polynomials": -0.49351513791021345,
    "the": 0.21969960570054117,
    "environmental": -0.49351513791021345,
    "off": 0.19963204264973183,
    "decay": -0.49351513791021345,
    "draw": -0.49351513791021345,
    "techniques": 0.19963204264973183,
    "left": -0.49351513791021345,
    "range": 1.1159227745238869,
    "decompose": 0.4227755939639416,
    "prior": 2.3396982061460028,
    "defined": -0.08805002980204922,
    "a": -2.2852746071382684,
    "practise": 1.5859264037696224,
    "group": -0.08805002980204922,
    "according": 2.2145350631919967,
    "mental": 1.2112329543282117,
    "2023": 0.4227755939639416,
    "concrete": 0.19963204264973183,
    "important": -0.49351513791021345,
    "names": -0.08805002980204922,
    "are": 0.4678960292444113,
    "fix": -3.825719648085417,
    "trigonometry": -0.08805002980204922,
    "ib": -3.4892474114642043,
    "g": -0.49351513791021345,
    "onedigit": -0.49351513791021345,
    "8": -0.20583306545843255,
    "round": -0.49351513791021345,
    "form": -0.49351513791021345,
    "algebra": 0.4227755939639416,
    "strategies": 0.7592478305851547,
    "20": 1.0105622588660608,
    "into": 0.19963204264973183,
    "teacher": -0.49351513791021345,
    "degree": -0.49351513791021345,
    "apparatus": -0.49351513791021345,
    "100": -0.08805002980204922,
    "trigonometric": -0.08805002980204922,
    "assessment": -0.04456491786231036,
    "exam": 2.2145350631919967,
    "test": 0.19963204264973183,
    "last": -0.49351513791021345,
    "unknown": -0.49351513791021345,
    "looking": -0.08805002980204922,
    "me": -1.0733336331631553,
    "revision": 0.19963204264973183,
    "data": 1.4523950111450998,
    "parameters": -0.49351513791021345,
    "99": -0.49351513791021345,
    "study": 2.2790735843295677,
    "analysis": -3.671568968258159,
    "any": 1.0105622588660608,
    "check": -0.08805002980204922,
    "revise": 0.19963204264973183,
    "solving": 0.19963204264973183,
    "to": 0.8535585100563958,
    "knowledge": 2.3396982061460028,
    "those": -0.49351513791021345,
    "whole": 1.6465510255860574,
    "show": -0.08805002980204922,
    "context": 0.4227755939639416,
    "parallel": -0.49351513791021345,
    "area": -0.08805002980204922,
    "999": -0.08805002980204922,
    "calculations": 1.0105622588660608,
    "sin": -0.08805002980204922,
    "irregular": -0.49351513791021345,
    "reduction": -0.49351513791021345,
    "june": -0.49351513791021345,
    "5": 0.5079334023042485,
    "must": 1.0105622588660608,
    "which": 0.19963204264973183,
    "base": -0.49351513791021345,
    "used": -0.49351513791021345,
    "free": -0.08805002980204922,
    "exponential": -0.49351513791021345,
    "from": 0.8927792232096772,
    "control": -0.49351513791021345,
    "0": 1.378287038991378,
    "interest": -3.894712519572369,
    "4": 1.277190922120009,
    "multiples": 0.4227755939639416,
    "match": -0.49351513791021345,
    "2d": 0.8927792232096772,
    "save": -0.49351513791021345,
    "valid": 0.4227755939639416,
    "note": -0.49351513791021345,
    "ratio": -0.08805002980204922,
    "700": 0.4227755939639416,
    "ratios": -0.49351513791021345,
    "objects": -0.08805002980204922,
    "irrational": -0.49351513791021345,
    "economic": -0.49351513791021345,
    "afl": -0.49351513791021345,
    "calculation": 0.605097150757896,
    "compare": 0.4227755939639416,
    "terms": -0.08805002980204922,
    "week": 2.3686857430192547,
    "places": -0.08805002980204922,
    "written": 0.19963204264973183,
    "sba": -0.08805002980204922,
    "mathematics": 1.6287464009525507,
    "accurately": -0.49351513791021345,
    "can": -0.49351513791021345,
    "views": -0.49351513791021345,
    "complete": -0.49351513791021345,
    "explain": -0.3111935811162588,
    "discover": -0.49351513791021345,
    "division": 0.7592478305851547,
    "scientific": -0.49351513791021345,
    "recall": -0.49351513791021345,
    "1": 1.610619016359994,
    "sine": -0.49351513791021345,
    "order": 1.0105622588660608,
    "percentages": -0.49351513791021345,
    "relationship": -3.7516116759316955,
    "output": -0.49351513791021345,
    "car": -3.825719648085417,
    "shape": 0.4227755939639416,
    "history": -3.5845575912685295,
    "blocks": -0.49351513791021345,
    "80": 0.19963204264973183,
    "quick": 1.2112329543282117,
    "birthdays": -0.49351513791021345,
    "interpret": -0.49351513791021345,
    "28": -0.49351513791021345,
    "11": 0.4227755939639417,
    "construction": -0.49351513791021345,
    "project": -0.08805002980204922,
    "diagram": -0.49351513791021345,
    "real": -0.08805002980204922,
    "relationships": 1.1159227745238869,
    "life": -3.894712519572369,
    "name": 0.4227755939639416,
    "understand": 2.1806335115163153,
    "comparing": -0.08805002980204922,
    "counters": -0.08805002980204922,
    "algebraic": 0.4227755939639416,
    "how": 0.285154216087894,
    "advice": -3.7516116759316955,
    "one": 0.8927792232096772,
    "grouped": -0.49351513791021345,
    "france": -3.5845575912685295,
    "for": 4.16044521224731,
    "content": 2.4242555941740656,
    "plans": 0.4227755939639416,
    "practical": -0.49351513791021345,
    "collect": -0.49351513791021345,
    "tally": -0.49351513791021345,
    "onus": 0.4227755939639416,
    "lines": 0.4227755939639416,
    "numbers": 2.8908751254355605,
    "e": -0.49351513791021345,
    "quarters": -0.49351513791021345,
    "differentiation": -0.49351513791021345,
    "caps": 1.9527766757500074,
    "x": -0.49351513791021345,
    "investigation": -0.08805002980204922,
    "126": -0.49351513791021345,
    "other": -0.49351513791021345,
    "worksheet": -3.7516116759316955,
    "identify": -0.49351513791021345,
    "movement": -0.49351513791021345,
    "solutions": -0.08805002980204922,
    "effect": -0.08805002980204922,
    "cape": -3.894712519572369,
    "planned": -0.49351513791021345,
    "without": -0.49351513791021345,
    "multiple": -0.49351513791021345,
    "ten": -0.08805002980204922,
    "p": -0.49351513791021345,
    "assessed": 2.3098452429963214,
    "geometry": 1.4523950111450998,
    "term": 3.0618329235792,
    "sort": -2.652999387263586,
    "subtraction": 0.19963204264973183,
    "write": -3.671568968258159,
    "divide": -0.08805002980204922,
    "euclidean": 0.7592478305851547,
    "30": 0.4227755939639416,
    "geography": -3.7516116759316955,
    "rational": -0.08805002980204922,
    "transformation": -0.49351513791021345,
    "where": -0.49351513791021345,
    "read": -0.49351513791021345,
    "simple": -0.49351513791021345,
    "past": -3.671568968258159,
    "needed": 2.3396982061460028,
    "total": -0.08805002980204922,
    "issues": -0.49351513791021345,
    "my": -0.4935151379102133,
    "360": -0.08805002980204922,
    "engine": -3.825719648085417,
    "up": 1.2982443313178413,
    "provide": 0.19963204264973183,
    "position": -0.49351513791021345,
    "edges": -0.49351513791021345,
    "assignment": -0.49351513791021345,
    "dek": 2.2473248860149875,
    "describe": 1.1159227745238869,
    "formulae": -0.49351513791021345,
    "javascript": -3.671568968258159,
    "year": -0.49351513791021345,
    "bonds": 1.8090699550838323,
    "addition": 0.19963204264973183,
    "find": -0.49351513791021345,
    "collecting": -0.49351513791021345,
    "73": -0.49351513791021345,
    "reliable": 0.4227755939639416,
    "vertices": -0.08805002980204922,
    "200": -0.49351513791021345,
    "today": -3.894712519572369,
    "2s": -0.08805002980204922,
    "is": 0.3039920579739747,
    "knows": 0.4227755939639416,
    "alongside": -0.49351513791021345,
    "problem": -0.08805002980204922,
    "through": -0.49351513791021345,
    "answering": -0.49351513791021345,
    "paper": -2.5729566795900496,
    "there": -0.49351513791021345,
    "add": 0.19963204264973183,
    "photosynthesis": -3.5845575912685295,
    "180": -0.08805002980204922,
    "summarize": 2.450923841256227,
    "same": -0.08805002980204922,
    "with": -1.9206314935503592,
    "q": -0.49351513791021345,
    "contexts": -0.08805002980204922,
    "adding": -0.49351513791021345,
    "determine": -0.49351513791021345,
    "question": -3.4892474114642043,
    "cubic": -0.49351513791021345,
    "digit": 1.703709439426006,
    "cover": 2.3098452429963214,
    "cosine": -0.49351513791021345,
    "linear": -0.49351513791021345,
    "shapes": 1.378287038991378,
    "exponents": -0.49351513791021345,
    "domain": -0.49351513791021345,
    "b": 0.19963204264973183,
    "10": 1.1406153871142586,
    "10s": -0.49351513791021345,
    "y": -0.49351513791021345,
    "wat": 2.2473248860149875,
    "annual": 0.4227755939639416,
    "first": -0.08805002980204922,
    "like": -0.49351513791021345,
    "capital": -3.5845575912685295,
    "fractions": 1.8090699550838323,
    "features": -0.49351513791021345
  },
  "bias_on": 0.7853533744266792,
  "metrics": {
    "val_accuracy": 1.0,
    "val_size": 70
  },
  "backend": "token_log_odds"
}